function [y1,xf1,xf2] = middle_bm_nnm_exp3(x1,x2,xi1,xi2)
%MIDDLE_BM_NNM_EXP3 neural network simulation function.
%
% Auto-generated by MATLAB, 27-Aug-2019 19:15:09.
% 
% [y1,xf1,xf2] = middle_bm_nnm_exp3(x1,x2,xi1,xi2) takes these arguments:
%   x1 = 16xTS matrix, input #1
%   x2 = 3xTS matrix, input #2
%   xi1 = 16x2 matrix, initial 2 delay states for input #1.
%   xi2 = 3x2 matrix, initial 2 delay states for input #2.
% and returns:
%   y1 = 3xTS matrix, output #1
%   xf1 = 16x2 matrix, final 2 delay states for input #1.
%   xf2 = 3x2 matrix, final 2 delay states for input #2.
% where TS is the number of timesteps.

% ===== NEURAL NETWORK CONSTANTS =====

% Input 1
x1_step1.xoffset = [-0.4583;-0.1074;0.6659;0.3876;-0.4967;0.119;0.5264;0.3653;-0.4931;-0.087;0.7581;-0.447;-0.4389;-0.0141;0.8263;0.1727];
x1_step1.gain = [7.0298769771529;6.99790062981106;8.71459694989107;7.44047619047619;9.04977375565611;8.64304235090752;6.10873549175321;6.61594442606682;5.12689054088695;4.46428571428571;9.00900900900901;2.20264317180617;8.68432479374729;9.14913083257091;16.0901045856798;8.09061488673139];
x1_step1.ymin = -1;

% Input 2
x2_step1.xoffset = [-42.35398667;-27.72971757;-11.74116906];
x2_step1.gain = [0.0198931201438839;0.0425556129037359;0.0519258024025963];
x2_step1.ymin = -1;

% Layer 1
b1 = [-0.11773167773187505347;0.074060048432600736334;0.25323656074241690517;-0.15928696463921773741;-0.0041111340664506650783];
IW1_1 = [-0.16343744999269604889 0.41908638126506092547 -0.23811577378639536828 -0.034096419627047812317 -0.089815424519620198907 0.090105318376456758345 0.56703883149243317074 0.0066351580377583836007 -0.056478513948992822846 -0.25199608605421658369 -0.25099007147576946064 -0.6830969456375434179 -0.76938433487773549846 0.11215661444267441271 -0.60409552750076944694 -0.099379403079183914471 0.41284600165170354247 -0.4569340272448679241 0.13009086291747840036 0.044361289376505928794 0.025355828761130582566 0.18639317208973055218 0.10274349551636455247 0.50911944776136219826 -0.020147559095313533756 0.19644137807909664573 0.28455923364925705954 0.29336527064641337859 0.73117226710585847549 -0.17983393812148351643 0.0082271779574818720143 -0.3371831699164471452;-0.040238403122478248741 0.28271542543026673133 -0.070800333857580666219 0.012003489928169007797 -0.043403609485721861283 0.034314238573782705755 0.25263883860455788044 -0.10474995890907402851 -0.024214532525095294052 -0.22718378787821022491 -0.16116529418151134823 -0.30526575361074825832 -0.33470237601459779109 0.16043310866507404233 -0.40840087625089194212 -0.1735040583393310798 0.18826519847204234437 -0.31499552297489502584 0.037991965637518311516 0.042240442641972443527 0.019540257628718464555 0.096841285941685187333 0.024293954426991153789 0.33862341776458865228 -0.0068448147869664558232 0.16789431180063468796 0.17221929665153867806 0.16845345275759462944 0.30607472283212239228 -0.10628847738982756532 0.12548820975347921292 -0.10890471174177654423;0.22318633273107246762 -0.42839058345624481117 -0.14967383292739369627 0.033701165817543295156 0.068049332603096104877 0.17654571878673838703 -0.99654454469688091844 -0.45505414050583109509 0.12844704248054031326 0.17472987270750173217 0.019218582385775794669 0.55124697196748140282 0.55113966280149551125 0.3275811606755724692 0.40871343843527724315 -0.26639304764123727942 -0.36400277266132480269 0.42904222293600002835 0.28626952633250246638 0.14546059322130591718 0.024033628265097653487 -0.46618504476111349843 0.24899808879381252202 -0.15382218502541067373 -0.075457671852584506933 -0.25250446104287921356 -0.056709427589478611509 -0.094281981672973774744 -0.52046082967106099826 -0.028083411197117224417 0.1524513944759310069 0.47928852938229193903;-0.13078432658122715604 0.087994507396801618926 0.54347757892775727662 -0.30381133414856242858 0.050784043488446201087 -0.70027311123286184458 1.1018222480480752701 0.69026628095279840558 -0.29801288640394346663 0.074847335752129789954 0.3793222868087091082 -0.29949441335254961549 -0.1114205343078308319 -0.8448972951278919119 0.59090819700812324822 1.2550692002073335907 0.0016698256103527323296 -0.0098261165568870201953 -0.68861929985219139105 -0.2264463846257272206 -0.10113791027594946914 0.89914039556121572172 -0.58003621712231812069 -0.16582488071404694052 0.28971063394904078558 0.23656664356450746167 -0.38967818730883907463 -0.18672767644110274676 0.094671271568655637751 0.11378196588768331454 -0.8332643369542604983 -0.86900987019802933276;0.11692040739496646629 -0.20163464748569689955 0.053362338146937797478 -0.12930762114729996148 0.071962937666944906678 -0.12393487677615108722 -0.29572302536036410014 -0.044933506961565498894 -0.025311650568424836488 0.083500772511753307281 0.10434158301898181775 0.25512217938527848027 0.24933950463313575563 -0.026024788438417108261 0.41543382370294584804 0.22176942214527231578 -0.21706893679745181691 0.22306739890120647063 -0.029192349251002943505 0.059442762542583765795 -0.070680557113913425327 0.045940879682781973758 0.11512164085944789904 -0.092174578184588046303 0.05460051879430649624 -0.026922094385587680421 -0.11507646790591143093 -0.14929991974405346089 -0.21050300678209776795 -0.024404641272206553659 -0.21125173348331649503 -0.0037779722939786861136];
IW1_2 = [-0.16934668459145946207 -2.0529777937599287263 0.33698336974274623046 0.37483687861103343053 1.6945492112678932628 -0.18854897775560652828;0.12535516562011556063 -1.0516168419658338262 -0.30634557998686379188 0.15194023231769870907 0.89237209405037476451 0.18742955459194887702;-0.15317008837858397952 0.92138731916395288923 0.15140874639797116674 0.2141761937200400423 -0.78764379069139511813 -0.011001752649343148754;2.4805916956765745596 0.73917948119667298279 -0.54288763157648889379 -2.099333315917457643 -0.92844708173213641444 -0.0008813006297391182825;0.47247499517842089789 0.32002558106220324596 -0.46899374549538258572 -0.42309409024552296907 -0.54151078317694822939 0.13463391811727326575];

% Layer 2
b2 = [-0.39603555254928030083;-0.20067452429579282769;0.058361297571499159975];
LW2_1 = [0.44256777015770282224 1.5665701702840106879 2.2451283441427052345 1.1607625037169952975 -1.2395219801188732678;-2.2095428753181858283 1.7843638793088856254 -0.47525594082082583958 0.22547217941559949406 -2.3988857847392237588;2.0769250258842926193 -2.2449004833893422273 1.8122605967005953609 0.62719624366579440622 -1.0821901093575954089];

% Output 1
y1_step1.ymin = -1;
y1_step1.gain = [0.0198931201438839;0.0425556129037359;0.0519258024025963];
y1_step1.xoffset = [-42.35398667;-27.72971757;-11.74116906];

% ===== SIMULATION ========

% Dimensions
TS = size(x1,2); % timesteps

% Input 1 Delay States
xd1 = mapminmax_apply(xi1,x1_step1);
xd1 = [xd1 zeros(16,1)];

% Input 2 Delay States
xd2 = mapminmax_apply(xi2,x2_step1);
xd2 = [xd2 zeros(3,1)];

% Allocate Outputs
y1 = zeros(3,TS);

% Time loop
for ts=1:TS

      % Rotating delay state position
      xdts = mod(ts+1,3)+1;
    
    % Input 1
    xd1(:,xdts) = mapminmax_apply(x1(:,ts),x1_step1);
    
    % Input 2
    xd2(:,xdts) = mapminmax_apply(x2(:,ts),x2_step1);
    
    % Layer 1
    tapdelay1 = reshape(xd1(:,mod(xdts-[1 2]-1,3)+1),32,1);
    tapdelay2 = reshape(xd2(:,mod(xdts-[1 2]-1,3)+1),6,1);
    a1 = tansig_apply(b1 + IW1_1*tapdelay1 + IW1_2*tapdelay2);
    
    % Layer 2
    a2 = b2 + LW2_1*a1;
    
    % Output 1
    y1(:,ts) = mapminmax_reverse(a2,y1_step1);
end

% Final delay states
finalxts = TS+(1: 2);
xits = finalxts(finalxts<=2);
xts = finalxts(finalxts>2)-2;
xf1 = [xi1(:,xits) x1(:,xts)];
xf2 = [xi2(:,xits) x2(:,xts)];
end

% ===== MODULE FUNCTIONS ========

% Map Minimum and Maximum Input Processing Function
function y = mapminmax_apply(x,settings)
  y = bsxfun(@minus,x,settings.xoffset);
  y = bsxfun(@times,y,settings.gain);
  y = bsxfun(@plus,y,settings.ymin);
end

% Sigmoid Symmetric Transfer Function
function a = tansig_apply(n,~)
  a = 2 ./ (1 + exp(-2*n)) - 1;
end

% Map Minimum and Maximum Output Reverse-Processing Function
function x = mapminmax_reverse(y,settings)
  x = bsxfun(@minus,y,settings.ymin);
  x = bsxfun(@rdivide,x,settings.gain);
  x = bsxfun(@plus,x,settings.xoffset);
end
