function [y1,xf1,xf2] = index_bm_nnm_exp3(x1,x2,xi1,xi2)
%INDEX_BM_NNM_EXP3 neural network simulation function.
%
% Auto-generated by MATLAB, 27-Aug-2019 19:15:40.
% 
% [y1,xf1,xf2] = index_bm_nnm_exp3(x1,x2,xi1,xi2) takes these arguments:
%   x1 = 16xTS matrix, input #1
%   x2 = 3xTS matrix, input #2
%   xi1 = 16x2 matrix, initial 2 delay states for input #1.
%   xi2 = 3x2 matrix, initial 2 delay states for input #2.
% and returns:
%   y1 = 3xTS matrix, output #1
%   xf1 = 16x2 matrix, final 2 delay states for input #1.
%   xf2 = 3x2 matrix, final 2 delay states for input #2.
% where TS is the number of timesteps.

% ===== NEURAL NETWORK CONSTANTS =====

% Input 1
x1_step1.xoffset = [-0.1815;-0.1351;0.7194;0.2933;-0.2095;0.1824;0.7935;0.0363;-0.454;0.0308;0.7706;-0.3328;-0.1492;0.0097;0.8919;0.1582];
x1_step1.gain = [6.11620795107034;9.71817298347911;8.56164383561644;5.03018108651912;5.87026709715292;9.21234454168586;11.4744693057946;4.27441761060056;3.14415972331394;3.44887049491292;9.12408759124087;2.69978401727862;6.37958532695375;14.2857142857143;23.2288037166086;7.49063670411985];
x1_step1.ymin = -1;

% Input 2
x2_step1.xoffset = [-34.22038887;-54.61491337;-33.15052065];
x2_step1.gain = [0.0202971975872209;0.0423350850978253;0.0363858278153968];
x2_step1.ymin = -1;

% Layer 1
b1 = [-0.62121969998169124239;-0.058476962344133555372;0.34776248080291144449;0.041104608189741521918;-0.53543167359617893641];
IW1_1 = [0.32509482314838000772 0.15546973578872735899 0.25924638424985763097 -0.10376346810671756293 -0.039471566305139454967 -0.0046856782946683474267 -0.0017785194196947504142 0.037021340248910544757 -0.55653038519723119215 -0.28710297268910756063 0.31712154142649096045 0.30179142265302832948 -0.65444958508565687083 -0.852681064536743194 -0.51682407102030958335 0.47823224391031926572 -0.16688521385106802608 -0.25627243800089044568 -0.095756635629420105982 0.30024767881692632221 0.56523067358553225059 -0.27672058337960148133 -0.18171968882775371701 -0.18754701882225457976 0.089698812325300816828 0.33701707914431883184 -0.19080242301912961334 0.087034689551616972736 0.19721068685940382204 1.114351558025466371 0.13509228098371273141 -0.88283519775954077957;-0.30325038531613801585 -0.092709914641075752417 -0.32251942955675588776 -0.15999074265605980893 0.10279291533840917428 -0.16525627553800073533 -0.026612258987536319826 -0.033694364678389973622 -0.085969185595860309057 0.33213219591442516565 0.017932061931635615015 0.0098220364231574354419 0.2900455778995220113 0.12251329113862008402 0.15709168001740153597 0.017739533336188838958 0.18962422015904834005 0.053388074891532313893 0.11097821235061147704 0.029925805392168547403 -0.078764296803560493454 0.17955690124995019041 -0.00025025342389557031497 0.052511998126129465214 0.11193276873935945059 -0.35217911149462199916 -0.045197740288038010248 0.026452030523870458806 -0.12821556317612869957 -0.082782683149885238905 -0.02211899220744689698 0.033699726950827374461;0.092669059618039714699 -0.20355613159682794944 -0.024302220270799777813 0.19312390999805795211 0.40918068135511675987 0.033685800183247210926 -0.59155389086213827632 -0.20162419141488147067 0.18481701235399089489 -0.61318293085951880439 -0.1362835281088750905 0.05720212830218428246 -0.67001895901809138678 0.18505853532062471745 -0.36618208426654935694 0.1806959300517441136 -0.0017370804560646584819 -0.12112681863386887127 0.021039868913333550915 -0.0058429260966218650453 0.40196136487390593528 -0.54759661848239071791 -0.68258043742288820876 -0.29801741588437652419 -0.10671456554491667856 0.56426660982290388624 0.15583058696344115335 -0.098431375867354453657 0.028529939298521451302 0.11814224493989965159 0.55459565088269868749 -0.30973088708238782907;0.039025002081682171051 -0.0097134548403382987847 -0.033613642628236663212 -0.070283683605806002159 0.025123055353290013603 0.041660631064222242159 0.014119511744050938437 0.0014740139352516679234 0.017905447458538614747 -0.0055109554367714736964 -0.016459912972660892955 -0.02680802727736466759 0.10035886856408783585 0.039221834436407601587 0.061572912174276919761 0.09814115606917417356 -0.078546495828684240181 0.0037230275178367472876 -0.0081891810911860398597 0.051503006088476382951 -0.043447258437416563792 -0.0028812656239770072578 0.042664906942123312361 0.021982153284701603374 0.035787972089641913176 0.0050822475866022162605 -0.0036596023623392862599 0.0025845291050432604545 0.00035674621833481920744 -0.036160905741129789615 -0.049343972504219762998 -0.11111187038918017567;-0.68759550509981004485 -0.55158865749543628532 -0.83055724954069010124 -0.19728730871621658061 0.16102907517744716182 -0.21412781249103116088 -0.63053417581255988278 -0.29921497396287449755 0.52972176827578676406 -0.032521501471559466356 -0.29446767193516343308 -0.17307347223221053456 0.2320834251922009317 0.8030014780618387471 0.24977613921898222937 -0.13239323705455210978 0.60358217093863786307 0.36341022619033547247 0.54341623973994079844 0.049654807556927887946 -0.027854540227035085725 0.080524469202767443021 -0.12329826653815750825 0.035937574140808878354 -0.047329246392419969947 0.032784585727664433685 0.28431288540472388071 -0.12373189869752164449 -0.30559163798925864652 -0.73140420025219332611 0.16588990489587221444 0.36532156414786937093];
IW1_2 = [-0.41346946854760241452 -0.52826945115666512631 -0.035649647265817617503 0.35793672317649982695 0.12088534779360619875 0.30064618790762054346;0.32953447417909342843 -0.49709530151685049626 0.65723106520345853099 -0.11765476429799673341 0.23853265991723227035 -0.29813755850724610319;-2.5113435672638795282 1.0979184743769574428 -0.092239507563370723431 1.8537526981519469871 -0.70950845891334257676 0.085411930199453062196;-0.19416356629105427367 -0.35928583086030940752 -0.75867505855468475584 0.0027543671429875217493 0.11541277144900495555 0.21152758140251320951;0.23645145128185879324 0.61129135538072087996 -0.0242441625417934431 0.36193359798433316632 -0.29122416972977271943 -0.024806036037472025541];

% Layer 2
b2 = [1.3736978616197872416;0.15784968625600490078;-0.69795282316763362918];
LW2_1 = [1.1820328660415870825 -0.62116106572173723777 -0.85054427876560645405 -0.062201677995373017005 1.2541871134748683314;0.23287268952936973632 -1.9732539219089473281 -0.043594495828308786611 -0.93364537224031174389 0.25418853365004157041;-0.82320246951568687432 1.3780995248398453246 0.35205782562568882499 -1.1302214280336662089 -0.63413756613362248782];

% Output 1
y1_step1.ymin = -1;
y1_step1.gain = [0.0202971975872209;0.0423350850978253;0.0363858278153968];
y1_step1.xoffset = [-34.22038887;-54.61491337;-33.15052065];

% ===== SIMULATION ========

% Dimensions
TS = size(x1,2); % timesteps

% Input 1 Delay States
xd1 = mapminmax_apply(xi1,x1_step1);
xd1 = [xd1 zeros(16,1)];

% Input 2 Delay States
xd2 = mapminmax_apply(xi2,x2_step1);
xd2 = [xd2 zeros(3,1)];

% Allocate Outputs
y1 = zeros(3,TS);

% Time loop
for ts=1:TS

      % Rotating delay state position
      xdts = mod(ts+1,3)+1;
    
    % Input 1
    xd1(:,xdts) = mapminmax_apply(x1(:,ts),x1_step1);
    
    % Input 2
    xd2(:,xdts) = mapminmax_apply(x2(:,ts),x2_step1);
    
    % Layer 1
    tapdelay1 = reshape(xd1(:,mod(xdts-[1 2]-1,3)+1),32,1);
    tapdelay2 = reshape(xd2(:,mod(xdts-[1 2]-1,3)+1),6,1);
    a1 = tansig_apply(b1 + IW1_1*tapdelay1 + IW1_2*tapdelay2);
    
    % Layer 2
    a2 = b2 + LW2_1*a1;
    
    % Output 1
    y1(:,ts) = mapminmax_reverse(a2,y1_step1);
end

% Final delay states
finalxts = TS+(1: 2);
xits = finalxts(finalxts<=2);
xts = finalxts(finalxts>2)-2;
xf1 = [xi1(:,xits) x1(:,xts)];
xf2 = [xi2(:,xits) x2(:,xts)];
end

% ===== MODULE FUNCTIONS ========

% Map Minimum and Maximum Input Processing Function
function y = mapminmax_apply(x,settings)
  y = bsxfun(@minus,x,settings.xoffset);
  y = bsxfun(@times,y,settings.gain);
  y = bsxfun(@plus,y,settings.ymin);
end

% Sigmoid Symmetric Transfer Function
function a = tansig_apply(n,~)
  a = 2 ./ (1 + exp(-2*n)) - 1;
end

% Map Minimum and Maximum Output Reverse-Processing Function
function x = mapminmax_reverse(y,settings)
  x = bsxfun(@minus,y,settings.ymin);
  x = bsxfun(@rdivide,x,settings.gain);
  x = bsxfun(@plus,x,settings.xoffset);
end
