function [y1,xf1,xf2] = flex_middle_time(x1,x2,xi1,xi2)
%FLEX_MIDDLE_TIME neural network simulation function.
%
% Auto-generated by MATLAB, 06-Aug-2019 18:17:18.
% 
% [y1,xf1,xf2] = flex_middle_time(x1,x2,xi1,xi2) takes these arguments:
%   x1 = 1xTS matrix, input #1
%   x2 = 3xTS matrix, input #2
%   xi1 = 1x1 matrix, initial 1 delay states for input #1.
%   xi2 = 3x1 matrix, initial 1 delay states for input #2.
% and returns:
%   y1 = 3xTS matrix, output #1
%   xf1 = 1x1 matrix, final 1 delay states for input #1.
%   xf2 = 3x1 matrix, final 1 delay states for input #2.
% where TS is the number of timesteps.

% ===== NEURAL NETWORK CONSTANTS =====

% Input 1
x1_step1.xoffset = 59.8362059788327;
x1_step1.gain = 0.155349197573605;
x1_step1.ymin = -1;

% Input 2
x2_step1.xoffset = [0;0;0];
x2_step1.gain = [0.215308210362026;0.200743637827004;0.0897665629343387];
x2_step1.ymin = -1;

% Layer 1
b1 = [-0.073657190057116239679;0.017324906458992084951;-0.069076486840649944932;-0.063970451795904159642];
IW1_1 = [0.12240093274208385665 -0.5276363312773042491;-0.23161785584548130745 0.69619357732899833646;-0.099763688755710136502 -0.88288516046434906137;-0.0089845284005967869512 -0.026537051444347169171];
IW1_2 = [0.48810943672020967732 -1.4497687064464819251 1.2819142461818759937 -0.25146574561125906166 0.86434613012327876636 -0.69996301191334864278;0.53742215690724293164 -0.42142793420945257044 -1.4578592701583732438 -0.40122629436865675512 0.34020665949089690105 1.0386088147056553588;-0.4887964657820796921 0.10296877728775992444 1.4404569350796152527 0.47724634036989349584 -0.13926282446598553522 -1.4411778116266957817;-1.2547030898629083495 0.071636133112217073582 -0.18136752773843642372 0.5318537470698182501 -0.12306829765208936178 -0.06449022185734788748];

% Layer 2
b2 = [-0.059398524846270582545;-0.15700098553821370539;-0.020251171537106957971];
LW2_1 = [-0.14339830943111819828 0.41594937531131237485 0.46063198185680964691 -1.2910978378965523028;-1.040658242605949857 -0.67901456881853472503 -0.084678133428139443217 -0.58757855840598449682;0.35466619650133435204 -1.5196188270392627651 -1.1182326127850557018 -0.17933764417636180455];

% Output 1
y1_step1.ymin = -1;
y1_step1.gain = [0.215308210362026;0.200743637827004;0.0897665629343387];
y1_step1.xoffset = [0;0;0];

% ===== SIMULATION ========

% Dimensions
TS = size(x1,2); % timesteps

% Input 1 Delay States
xd1 = mapminmax_apply(xi1,x1_step1);
xd1 = [xd1 zeros(1,1)];

% Input 2 Delay States
xd2 = mapminmax_apply(xi2,x2_step1);
xd2 = [xd2 zeros(3,1)];

% Allocate Outputs
y1 = zeros(3,TS);

% Time loop
for ts=1:TS

      % Rotating delay state position
      xdts = mod(ts+0,2)+1;
    
    % Input 1
    xd1(:,xdts) = mapminmax_apply(x1(:,ts),x1_step1);
    
    % Input 2
    xd2(:,xdts) = mapminmax_apply(x2(:,ts),x2_step1);
    
    % Layer 1
    tapdelay1 = reshape(xd1(:,mod(xdts-[0 1]-1,2)+1),2,1);
    tapdelay2 = reshape(xd2(:,mod(xdts-[0 1]-1,2)+1),6,1);
    a1 = tansig_apply(b1 + IW1_1*tapdelay1 + IW1_2*tapdelay2);
    
    % Layer 2
    a2 = b2 + LW2_1*a1;
    
    % Output 1
    y1(:,ts) = mapminmax_reverse(a2,y1_step1);
end

% Final delay states
finalxts = TS+(1: 1);
xits = finalxts(finalxts<=1);
xts = finalxts(finalxts>1)-1;
xf1 = [xi1(:,xits) x1(:,xts)];
xf2 = [xi2(:,xits) x2(:,xts)];
end

% ===== MODULE FUNCTIONS ========

% Map Minimum and Maximum Input Processing Function
function y = mapminmax_apply(x,settings)
  y = bsxfun(@minus,x,settings.xoffset);
  y = bsxfun(@times,y,settings.gain);
  y = bsxfun(@plus,y,settings.ymin);
end

% Sigmoid Symmetric Transfer Function
function a = tansig_apply(n,~)
  a = 2 ./ (1 + exp(-2*n)) - 1;
end

% Map Minimum and Maximum Output Reverse-Processing Function
function x = mapminmax_reverse(y,settings)
  x = bsxfun(@minus,y,settings.ymin);
  x = bsxfun(@rdivide,x,settings.gain);
  x = bsxfun(@plus,x,settings.xoffset);
end
